(paste into NotePad++, activate word-wrap, and resize to see plainly)

ALMOST PERFECT (probably best for one of the precompiled trajectories):
tensor([[-0.2942, -0.2512,  0.3002, -0.3525,  0.1224],                                                                          [ 0.2332, -0.0477, -0.2953,  0.2696,  0.4020],                                                                          [-0.3647, -0.2002,  0.1354,  0.4120,  0.3422],                                                                          [-0.2566, -0.1592,  0.2846,  0.2942,  0.0543],                                                                          [ 0.0779, -0.0304, -0.4326, -0.1972,  0.1013],                                                                          [-0.3309,  0.4330,  0.2255,  0.0496, -0.3878],                                                                          [-0.1024, -0.3262, -0.2042, -0.3410,  0.1904],                                                                          [ 0.1546, -0.3765, -0.3533,  0.4461,  0.3216],                                                                          [-0.1573,  0.3579,  0.3239,  0.3162,  0.2968],                                                                          [ 0.0759, -0.3874, -0.3375, -0.4270,  0.2259],                                                                          [ 0.4180, -0.3074,  0.0384, -0.0023, -0.2679],                                                                          [ 0.1230,  0.4305, -0.2543,  0.2964, -0.4092],                                                                          [-0.0439, -0.3604,  0.2859, -0.0193, -0.1560],                                                                          [ 0.0077, -0.0771, -0.1938, -0.3446,  0.3508],                                                                          [ 0.1878,  0.1155,  0.3260,  0.2552,  0.4438],                                                                          [ 0.3368,  0.0086, -0.3775, -0.1116, -0.1930]])                                                                 tensor([-0.1739,  0.0334,  0.0247,  0.4311, -0.0670,  0.4111,  0.1770, -0.2624,                                                 -0.3073, -0.1885,  0.1756,  0.3532, -0.0025, -0.0762,  0.3815, -0.4198])                                        tensor([[-0.0529,  0.0744,  0.1918,  0.1897,  0.1738,  0.0341,  0.1539, -0.0929,                                                 -0.2300,  0.0969, -0.2256,  0.1402, -0.0137, -0.0600,  0.2160, -0.1395],                                               [-0.2443, -0.0401, -0.0383, -0.1352, -0.2190,  0.1638, -0.0956, -0.2411,                                                 -0.0514, -0.2365,  0.1134,  0.1516, -0.0233, -0.2147,  0.1612, -0.1294],                                               [-0.1209,  0.0983, -0.1736,  0.1705,  0.1590, -0.0277,  0.1885,  0.1195,                                                 -0.2064, -0.1475,  0.1923,  0.1978,  0.1701,  0.0357,  0.1417, -0.1771],                                               [ 0.0722,  0.0978, -0.1009, -0.0714, -0.2185, -0.0017,  0.0607,  0.2014,                                                  0.1832, -0.0227, -0.1010,  0.1781, -0.0150,  0.1231,  0.1387,  0.1019],                                               [ 0.0830, -0.2461,  0.0697, -0.2329,  0.1197,  0.0419, -0.0900,  0.1617,                                                 -0.1409, -0.0468, -0.0866, -0.0570, -0.2492,  0.0316,  0.2246,  0.1622],                                               [ 0.1766, -0.1420,  0.1897, -0.1424,  0.0571,  0.0182,  0.1146, -0.0820,                                                  0.0891,  0.0081, -0.0774,  0.2239, -0.0372, -0.2358,  0.1331, -0.2463],                                               [-0.2199,  0.0831, -0.2060, -0.0646,  0.0633,  0.0300, -0.2101,  0.2231,                                                  0.0866, -0.1084, -0.0761, -0.0792, -0.1352,  0.0407, -0.1785,  0.1913],                                               [-0.0464, -0.1820, -0.1074, -0.0922, -0.0343,  0.0811, -0.1347,  0.0303,                                                  0.2465,  0.0226, -0.0457, -0.1633, -0.1061, -0.1171, -0.0240, -0.1434],                                               [-0.0622,  0.0866,  0.0929,  0.1771, -0.0019, -0.1646,  0.0089,  0.1181,                                                  0.1200, -0.0363,  0.1106,  0.2330,  0.0989,  0.1410, -0.2491, -0.0421],                                               [-0.1792,  0.0921, -0.2256, -0.2434, -0.1601,  0.2429,  0.0263,  0.1202,                                                 -0.1219,  0.0815,  0.0290,  0.1561, -0.0712,  0.2135, -0.1057, -0.2014],                                               [ 0.1962, -0.2074, -0.1382,  0.2162, -0.1244,  0.2293,  0.2351,  0.0982,                                                 -0.0851, -0.0342, -0.0461,  0.0509, -0.2059,  0.1820,  0.0257, -0.1657],                                               [-0.1229, -0.1053,  0.0128, -0.1432,  0.1365, -0.1270, -0.0644,  0.1394,                                                 -0.0820, -0.2059,  0.0644,  0.1892,  0.2229,  0.2127, -0.1272,  0.2221],                                               [ 0.1703, -0.0530, -0.1732, -0.1383, -0.1797,  0.2237,  0.1457,  0.0888,                                                  0.0789,  0.1360,  0.1999,  0.1351, -0.1049,  0.1886,  0.0095, -0.1899],                                               [-0.0419,  0.0020, -0.0449, -0.0925,  0.1592, -0.1692, -0.1196,  0.1449,                                                  0.0872,  0.0853, -0.2371, -0.1961, -0.0429,  0.0085, -0.0599, -0.0742],                                               [ 0.1705, -0.1961, -0.1642, -0.0096, -0.1704,  0.1615, -0.1606,  0.1082,                                                  0.1897, -0.2409, -0.0454, -0.0561, -0.1669, -0.0730,  0.2303,  0.0398],                                               [ 0.1864,  0.0759,  0.1747,  0.2134,  0.0024, -0.0777, -0.2209, -0.1941,                                                 -0.0973, -0.1361,  0.0127, -0.1217, -0.0451, -0.0678,  0.2415, -0.2110]])                                      tensor([ 0.0510,  0.2016, -0.1521, -0.2190,  0.0155,  0.0528, -0.1108, -0.1722,                                                 -0.1308,  0.0693,  0.1298,  0.1578,  0.1426,  0.2215, -0.1162,  0.0954])                                        tensor([[ 0.2011, -0.0115, -0.2156, -0.1293, -0.2279,  0.1015, -0.0490,  0.0854,                                                 -0.2211, -0.1736, -0.0636,  0.0557,  0.2331,  0.1434, -0.1606,  0.0607],                                               [-0.0364, -0.2469,  0.0318,  0.0642,  0.1326,  0.1254, -0.1576,  0.0660,                                                  0.1642,  0.1158,  0.1475,  0.0232,  0.2382, -0.1249, -0.1315,  0.1045]])                                      tensor([-0.2260, -0.1173])

COMPLETELY PERFECT (probably too good to use)
tensor([[ 0.2984, -0.2817, -0.1332,  0.2800, -0.3524],                                                                          [ 0.2863,  0.0528,  0.4311,  0.2840,  0.0320],                                                                          [ 0.0154,  0.4417, -0.0551, -0.4175,  0.2203],                                                                          [-0.2685,  0.1501, -0.2628,  0.2919,  0.1406],                                                                          [ 0.0744,  0.0487,  0.1020,  0.4242,  0.0784],                                                                          [-0.4181, -0.2523,  0.4174,  0.2068,  0.0052],                                                                          [-0.2304,  0.3655,  0.2160, -0.1637,  0.0764],                                                                          [-0.4352,  0.0780,  0.2929,  0.0216,  0.3173],                                                                          [-0.2158, -0.4179, -0.2158, -0.0415,  0.2477],                                                                          [ 0.1961,  0.3091,  0.2562, -0.3941, -0.2466],                                                                          [ 0.2593, -0.1329, -0.2308,  0.1775,  0.1500],                                                                          [ 0.1948, -0.3904, -0.1611, -0.4037, -0.2037],                                                                          [ 0.2745, -0.3018, -0.0632,  0.0065,  0.1114],                                                                          [ 0.2271, -0.1838,  0.2230, -0.3568, -0.2162],                                                                          [ 0.2467, -0.0282,  0.3055, -0.0117,  0.1597],                                                                          [-0.1726,  0.3477, -0.2514,  0.1505,  0.1533]])                                                                 tensor([ 0.0051,  0.0080,  0.4428, -0.1030, -0.1944, -0.3260, -0.1683,  0.1342,                                                  0.3924,  0.1505,  0.1224,  0.2642, -0.2148, -0.1410,  0.1569, -0.0482])                                        tensor([[ 1.0237e-01, -1.8745e-02, -1.7704e-01, -7.2630e-02, -3.3099e-02,                                                        -1.3370e-01,  1.5302e-01, -2.2646e-02, -1.2241e-01, -4.5490e-02,                                                        -6.6583e-02,  7.4789e-02,  1.7492e-01, -9.8328e-02, -4.2906e-02,                                                        -2.1055e-01],                                                                                                          [-2.0026e-01,  8.0418e-02,  1.5941e-01, -6.0855e-02,  2.3451e-01,                                                        -2.9805e-02,  2.5304e-02,  1.0294e-01,  1.4921e-01,  7.4318e-02,                                                         3.2722e-02, -5.5788e-02,  2.2829e-01, -1.3235e-01,  1.7789e-01,                                                         1.4700e-01],                                                                                                          [-2.8031e-02, -1.6942e-01, -2.3644e-01,  9.0845e-02, -5.5611e-02,                                                         2.4097e-01, -1.2877e-02, -3.7919e-02,  1.1082e-01,  5.9723e-02,                                                         1.0920e-01, -2.5048e-02,  2.4000e-01,  7.9830e-02,  1.6736e-01,                                                         2.1772e-01],                                                                                                          [ 8.3655e-02,  1.7526e-01, -4.0436e-02,  1.4348e-01,  1.7340e-01,                                                         1.0769e-01,  1.1474e-01, -1.6550e-01, -1.0909e-01, -1.8323e-01,                                                         7.3163e-02, -1.1958e-01, -9.9930e-02, -1.0027e-01, -1.1318e-01,                                                        -1.7045e-01],                                                                                                          [-1.7142e-01,  8.3436e-02, -2.6050e-02, -8.1040e-02, -4.2298e-02,                                                         7.0397e-02, -1.4399e-01,  8.9622e-03, -1.4456e-01,  1.0642e-01,                                                        -6.4010e-03, -1.3331e-01, -1.9443e-01, -6.0539e-02, -2.9067e-02,                                                         2.2909e-01],                                                                                                          [-1.6048e-02, -2.2953e-01, -2.2210e-01,  1.2985e-01,  1.0932e-01,                                                         1.7272e-01, -1.0399e-01, -1.0755e-01, -1.9896e-01,  1.6089e-01,                                                        -6.0434e-02, -2.2955e-01, -7.0080e-02, -1.2810e-01,  1.7306e-01,                                                         2.1738e-01],                                                                                                          [-1.1105e-01, -1.2272e-01,  4.8217e-02,  4.3739e-02, -2.2007e-01,                                                        -1.3711e-01, -3.4431e-02,  2.0898e-01, -1.7852e-01,  2.4807e-01,                                                         9.2013e-03,  1.2964e-01, -1.1480e-04,  2.2019e-01,  1.5068e-01,                                                         1.3888e-01],                                                                                                          [-6.4355e-02,  3.9326e-02, -2.1228e-01,  1.7381e-02, -7.0047e-02,                                                         1.3676e-01, -6.1348e-02,  8.2589e-02, -7.4027e-02,  1.8922e-02,                                                        -1.6063e-01, -8.3381e-02,  1.9894e-01,  9.2347e-02,  1.5597e-02,                                                        -1.4941e-01],                                                                                                          [-2.1621e-02, -4.1415e-02,  2.4181e-01,  2.3222e-01,  7.4963e-02,                                                        -1.8235e-01, -1.7383e-01,  2.1664e-01, -2.4053e-01,  7.7855e-02,                                                         2.4461e-01,  6.4376e-02,  2.0745e-01, -1.2715e-01, -8.7843e-02,                                                        -1.2352e-01],                                                                                                          [ 3.6862e-02, -2.4060e-01,  2.5408e-02,  2.0021e-01, -1.0706e-01,                                                         4.5672e-02,  7.2405e-02, -1.9568e-02,  1.1266e-01, -8.8400e-02,                                                         1.3969e-01, -1.0356e-01, -6.7885e-02,  3.6612e-02,  1.4597e-01,                                                        -7.7493e-02],                                                                                                          [-1.0800e-01,  1.0739e-01,  1.6926e-01,  1.1120e-01,  1.1293e-01,                                                         2.3894e-01,  1.9058e-01,  1.5214e-01, -1.1743e-01,  1.7346e-01,                                                        -1.1102e-01,  1.6175e-02,  7.6526e-02, -2.2332e-01, -9.8069e-02,                                                        -1.4975e-01],                                                                                                          [-2.0809e-03,  1.9349e-02,  5.9136e-02, -7.8103e-03, -1.5913e-01,                                                        -9.4357e-02,  4.8044e-02, -1.8223e-01, -1.9581e-01, -5.0451e-03,                                                         1.5326e-01, -1.8336e-02,  9.4072e-02,  1.1637e-01,  1.5901e-01,                                                         1.2395e-01],                                                                                                          [ 1.5268e-01, -1.4062e-01,  1.6067e-01,  4.0091e-02,  2.4196e-01,                                                        -1.5106e-01,  8.4133e-02,  1.8803e-01,  5.3187e-02, -2.3696e-01,                                                         7.7919e-02, -6.1251e-02,  1.7559e-01,  2.4777e-01, -6.2540e-02,                                                        -1.8759e-01],                                                                                                          [ 1.0165e-02,  4.3309e-02, -2.1228e-02,  1.4326e-01,  1.3978e-01,                                                        -3.5653e-02,  3.4166e-02,  1.4985e-01, -1.6424e-01,  2.3048e-01,                                                         2.1367e-01,  4.4501e-02, -1.6904e-01,  1.8393e-02, -1.4562e-01,                                                        -1.3844e-01],                                                                                                          [ 2.2150e-01,  5.4722e-02, -2.4346e-01, -2.3617e-01,  7.4610e-02,                                                        -2.1937e-01, -1.3311e-01,  2.0619e-02, -4.6305e-02,  5.4028e-02,                                                         1.4437e-01,  2.4751e-01, -1.7320e-01,  9.2740e-02, -2.2734e-01,                                                        -5.7717e-02],                                                                                                          [-1.2051e-01, -7.8143e-02, -1.4749e-02, -2.2021e-01,  9.1628e-02,                                                         6.3111e-02, -1.5403e-01,  2.0910e-01,  1.1602e-01, -2.3663e-01,                                                         3.2816e-02, -5.8895e-02,  1.8537e-02, -1.6615e-01, -1.0091e-03,                                                        -5.7617e-02]])                                                                                                 tensor([-0.0035,  0.0158, -0.0195, -0.1788,  0.0771, -0.1096,  0.1263,  0.0293,                                                  0.0089, -0.0567,  0.0432,  0.2054, -0.1004, -0.0226,  0.1989, -0.2407])                                        tensor([[ 0.1642, -0.2396, -0.1205, -0.1504,  0.2085, -0.2016, -0.2475, -0.0784,                                                 -0.0171,  0.1894,  0.0344, -0.2262,  0.1444,  0.2267, -0.1765,  0.1016],                                               [ 0.0204, -0.2189,  0.0750, -0.2000,  0.1858,  0.0709,  0.1494, -0.2284,                                                  0.2098,  0.0472,  0.0490,  0.0732, -0.1678, -0.2389, -0.1958,  0.0043]])                                      tensor([ 0.1226, -0.1835])